digraph Tree {
node [shape=box, style="filled, rounded", color="black", fontname="helvetica"] ;
edge [fontname="helvetica"] ;
0 [label="score <= 8.35\ngini = 0.792\nsamples = 309\nvalue = [3, 3, 48, 15, 15, 119, 15, 7, 4, 16, 6, 48, 3\n7]\nclass = drama", fillcolor="#c9f8e3"] ;
1 [label="release_year <= 2004.5\ngini = 0.787\nsamples = 297\nvalue = [3, 3, 43, 14, 14, 117, 15, 7, 4, 16, 5, 47, 3\n6]\nclass = drama", fillcolor="#c8f8e2"] ;
0 -> 1 [labeldistance=2.5, labelangle=45, headlabel="True"] ;
2 [label="release_year <= 1997.5\ngini = 0.72\nsamples = 54\nvalue = [1, 0, 9, 1, 0, 26, 0, 3, 0, 3, 3, 5, 1, 2]\nclass = drama", fillcolor="#b4f5d8"] ;
1 -> 2 ;
3 [label="release_year <= 1996.5\ngini = 0.816\nsamples = 28\nvalue = [0, 0, 7, 0, 0, 8, 0, 2, 0, 3, 2, 3, 1, 2]\nclass = drama", fillcolor="#f6fefa"] ;
2 -> 3 ;
4 [label="release_year <= 1962.5\ngini = 0.771\nsamples = 24\nvalue = [0, 0, 7, 0, 0, 8, 0, 1, 0, 3, 0, 2, 1, 2]\nclass = drama", fillcolor="#f3fdf9"] ;
3 -> 4 ;
5 [label="release_year <= 1957.5\ngini = 0.5\nsamples = 2\nvalue = [0, 0, 0, 0, 0, 0, 0, 0, 0, 1, 0, 0, 1, 0]\nclass = romance", fillcolor="#ffffff"] ;
4 -> 5 ;
6 [label="gini = 0.0\nsamples = 1\nvalue = [0, 0, 0, 0, 0, 0, 0, 0, 0, 1, 0, 0, 0, 0]\nclass = romance", fillcolor="#6739e5"] ;
5 -> 6 ;
7 [label="gini = 0.0\nsamples = 1\nvalue = [0, 0, 0, 0, 0, 0, 0, 0, 0, 0, 0, 0, 1, 0]\nclass = thriller", fillcolor="#e53986"] ;
5 -> 7 ;
8 [label="score <= 8.25\ngini = 0.74\nsamples = 22\nvalue = [0, 0, 7, 0, 0, 8, 0, 1, 0, 2, 0, 2, 0, 2]\nclass = drama", fillcolor="#f2fdf8"] ;
4 -> 8 ;
9 [label="release_year <= 1969.0\ngini = 0.755\nsamples = 20\nvalue = [0, 0, 7, 0, 0, 6, 0, 1, 0, 2, 0, 2, 0, 2]\nclass = comedy", fillcolor="#fafdf1"] ;
8 -> 9 ;
10 [label="score <= 7.5\ngini = 0.444\nsamples = 3\nvalue = [0, 0, 0, 0, 0, 2, 0, 0, 0, 0, 0, 0, 0, 1]\nclass = drama", fillcolor="#9cf2cc"] ;
9 -> 10 ;
11 [label="gini = 0.0\nsamples = 1\nvalue = [0, 0, 0, 0, 0, 0, 0, 0, 0, 0, 0, 0, 0, 1]\nclass = war", fillcolor="#e5393c"] ;
10 -> 11 ;
12 [label="gini = 0.0\nsamples = 2\nvalue = [0, 0, 0, 0, 0, 2, 0, 0, 0, 0, 0, 0, 0, 0]\nclass = drama", fillcolor="#39e598"] ;
10 -> 12 ;
13 [label="release_year <= 1973.0\ngini = 0.74\nsamples = 17\nvalue = [0, 0, 7, 0, 0, 4, 0, 1, 0, 2, 0, 2, 0, 1]\nclass = comedy", fillcolor="#eef9d1"] ;
9 -> 13 ;
14 [label="gini = 0.0\nsamples = 1\nvalue = [0, 0, 0, 0, 0, 0, 0, 0, 0, 0, 0, 1, 0, 0]\nclass = sports", fillcolor="#e539d1"] ;
13 -> 14 ;
15 [label="score <= 7.55\ngini = 0.719\nsamples = 16\nvalue = [0, 0, 7, 0, 0, 4, 0, 1, 0, 2, 0, 1, 0, 1]\nclass = comedy", fillcolor="#edf8ce"] ;
13 -> 15 ;
16 [label="release_year <= 1985.0\ngini = 0.79\nsamples = 9\nvalue = [0, 0, 2, 0, 0, 3, 0, 1, 0, 1, 0, 1, 0, 1]\nclass = drama", fillcolor="#e3fbf0"] ;
15 -> 16 ;
17 [label="score <= 7.15\ngini = 0.5\nsamples = 2\nvalue = [0, 0, 0, 0, 0, 0, 0, 1, 0, 0, 0, 0, 0, 1]\nclass = horror", fillcolor="#ffffff"] ;
16 -> 17 ;
18 [label="gini = 0.0\nsamples = 1\nvalue = [0, 0, 0, 0, 0, 0, 0, 0, 0, 0, 0, 0, 0, 1]\nclass = war", fillcolor="#e5393c"] ;
17 -> 18 ;
19 [label="gini = 0.0\nsamples = 1\nvalue = [0, 0, 0, 0, 0, 0, 0, 1, 0, 0, 0, 0, 0, 0]\nclass = horror", fillcolor="#399de5"] ;
17 -> 19 ;
20 [label="release_year <= 1993.5\ngini = 0.694\nsamples = 7\nvalue = [0, 0, 2, 0, 0, 3, 0, 0, 0, 1, 0, 1, 0, 0]\nclass = drama", fillcolor="#d7faea"] ;
16 -> 20 ;
21 [label="release_year <= 1992.0\ngini = 0.375\nsamples = 4\nvalue = [0, 0, 1, 0, 0, 3, 0, 0, 0, 0, 0, 0, 0, 0]\nclass = drama", fillcolor="#7beeba"] ;
20 -> 21 ;
22 [label="release_year <= 1988.5\ngini = 0.5\nsamples = 2\nvalue = [0, 0, 1, 0, 0, 1, 0, 0, 0, 0, 0, 0, 0, 0]\nclass = comedy", fillcolor="#ffffff"] ;
21 -> 22 ;
23 [label="gini = 0.0\nsamples = 1\nvalue = [0, 0, 0, 0, 0, 1, 0, 0, 0, 0, 0, 0, 0, 0]\nclass = drama", fillcolor="#39e598"] ;
22 -> 23 ;
24 [label="gini = 0.0\nsamples = 1\nvalue = [0, 0, 1, 0, 0, 0, 0, 0, 0, 0, 0, 0, 0, 0]\nclass = comedy", fillcolor="#b7e539"] ;
22 -> 24 ;
25 [label="gini = 0.0\nsamples = 2\nvalue = [0, 0, 0, 0, 0, 2, 0, 0, 0, 0, 0, 0, 0, 0]\nclass = drama", fillcolor="#39e598"] ;
21 -> 25 ;
26 [label="score <= 7.05\ngini = 0.667\nsamples = 3\nvalue = [0, 0, 1, 0, 0, 0, 0, 0, 0, 1, 0, 1, 0, 0]\nclass = comedy", fillcolor="#ffffff"] ;
20 -> 26 ;
27 [label="gini = 0.0\nsamples = 1\nvalue = [0, 0, 1, 0, 0, 0, 0, 0, 0, 0, 0, 0, 0, 0]\nclass = comedy", fillcolor="#b7e539"] ;
26 -> 27 ;
28 [label="release_year <= 1994.5\ngini = 0.5\nsamples = 2\nvalue = [0, 0, 0, 0, 0, 0, 0, 0, 0, 1, 0, 1, 0, 0]\nclass = romance", fillcolor="#ffffff"] ;
26 -> 28 ;
29 [label="gini = 0.0\nsamples = 1\nvalue = [0, 0, 0, 0, 0, 0, 0, 0, 0, 1, 0, 0, 0, 0]\nclass = romance", fillcolor="#6739e5"] ;
28 -> 29 ;
30 [label="gini = 0.0\nsamples = 1\nvalue = [0, 0, 0, 0, 0, 0, 0, 0, 0, 0, 0, 1, 0, 0]\nclass = sports", fillcolor="#e539d1"] ;
28 -> 30 ;
31 [label="release_year <= 1984.0\ngini = 0.449\nsamples = 7\nvalue = [0, 0, 5, 0, 0, 1, 0, 0, 0, 1, 0, 0, 0, 0]\nclass = comedy", fillcolor="#cfee7b"] ;
15 -> 31 ;
32 [label="gini = 0.0\nsamples = 3\nvalue = [0, 0, 3, 0, 0, 0, 0, 0, 0, 0, 0, 0, 0, 0]\nclass = comedy", fillcolor="#b7e539"] ;
31 -> 32 ;
33 [label="score <= 7.65\ngini = 0.625\nsamples = 4\nvalue = [0, 0, 2, 0, 0, 1, 0, 0, 0, 1, 0, 0, 0, 0]\nclass = comedy", fillcolor="#e7f6bd"] ;
31 -> 33 ;
34 [label="gini = 0.0\nsamples = 2\nvalue = [0, 0, 2, 0, 0, 0, 0, 0, 0, 0, 0, 0, 0, 0]\nclass = comedy", fillcolor="#b7e539"] ;
33 -> 34 ;
35 [label="release_year <= 1987.5\ngini = 0.5\nsamples = 2\nvalue = [0, 0, 0, 0, 0, 1, 0, 0, 0, 1, 0, 0, 0, 0]\nclass = drama", fillcolor="#ffffff"] ;
33 -> 35 ;
36 [label="gini = 0.0\nsamples = 1\nvalue = [0, 0, 0, 0, 0, 1, 0, 0, 0, 0, 0, 0, 0, 0]\nclass = drama", fillcolor="#39e598"] ;
35 -> 36 ;
37 [label="gini = 0.0\nsamples = 1\nvalue = [0, 0, 0, 0, 0, 0, 0, 0, 0, 1, 0, 0, 0, 0]\nclass = romance", fillcolor="#6739e5"] ;
35 -> 37 ;
38 [label="gini = 0.0\nsamples = 2\nvalue = [0, 0, 0, 0, 0, 2, 0, 0, 0, 0, 0, 0, 0, 0]\nclass = drama", fillcolor="#39e598"] ;
8 -> 38 ;
39 [label="score <= 7.4\ngini = 0.625\nsamples = 4\nvalue = [0, 0, 0, 0, 0, 0, 0, 1, 0, 0, 2, 1, 0, 0]\nclass = scifi", fillcolor="#e5bdf6"] ;
3 -> 39 ;
40 [label="gini = 0.0\nsamples = 1\nvalue = [0, 0, 0, 0, 0, 0, 0, 0, 0, 0, 1, 0, 0, 0]\nclass = scifi", fillcolor="#b139e5"] ;
39 -> 40 ;
41 [label="score <= 7.6\ngini = 0.667\nsamples = 3\nvalue = [0, 0, 0, 0, 0, 0, 0, 1, 0, 0, 1, 1, 0, 0]\nclass = horror", fillcolor="#ffffff"] ;
39 -> 41 ;
42 [label="gini = 0.0\nsamples = 1\nvalue = [0, 0, 0, 0, 0, 0, 0, 1, 0, 0, 0, 0, 0, 0]\nclass = horror", fillcolor="#399de5"] ;
41 -> 42 ;
43 [label="score <= 7.85\ngini = 0.5\nsamples = 2\nvalue = [0, 0, 0, 0, 0, 0, 0, 0, 0, 0, 1, 1, 0, 0]\nclass = scifi", fillcolor="#ffffff"] ;
41 -> 43 ;
44 [label="gini = 0.0\nsamples = 1\nvalue = [0, 0, 0, 0, 0, 0, 0, 0, 0, 0, 0, 1, 0, 0]\nclass = sports", fillcolor="#e539d1"] ;
43 -> 44 ;
45 [label="gini = 0.0\nsamples = 1\nvalue = [0, 0, 0, 0, 0, 0, 0, 0, 0, 0, 1, 0, 0, 0]\nclass = scifi", fillcolor="#b139e5"] ;
43 -> 45 ;
46 [label="score <= 7.15\ngini = 0.503\nsamples = 26\nvalue = [1, 0, 2, 1, 0, 18, 0, 1, 0, 0, 1, 2, 0, 0]\nclass = drama", fillcolor="#7beeba"] ;
2 -> 46 ;
47 [label="score <= 7.05\ngini = 0.72\nsamples = 5\nvalue = [1, 0, 1, 0, 0, 2, 0, 1, 0, 0, 0, 0, 0, 0]\nclass = drama", fillcolor="#cef8e5"] ;
46 -> 47 ;
48 [label="release_year <= 2001.5\ngini = 0.444\nsamples = 3\nvalue = [0, 0, 1, 0, 0, 2, 0, 0, 0, 0, 0, 0, 0, 0]\nclass = drama", fillcolor="#9cf2cc"] ;
47 -> 48 ;
49 [label="gini = 0.0\nsamples = 1\nvalue = [0, 0, 0, 0, 0, 1, 0, 0, 0, 0, 0, 0, 0, 0]\nclass = drama", fillcolor="#39e598"] ;
48 -> 49 ;
50 [label="gini = 0.5\nsamples = 2\nvalue = [0, 0, 1, 0, 0, 1, 0, 0, 0, 0, 0, 0, 0, 0]\nclass = comedy", fillcolor="#ffffff"] ;
48 -> 50 ;
51 [label="release_year <= 2000.0\ngini = 0.5\nsamples = 2\nvalue = [1, 0, 0, 0, 0, 0, 0, 1, 0, 0, 0, 0, 0, 0]\nclass = action", fillcolor="#ffffff"] ;
47 -> 51 ;
52 [label="gini = 0.0\nsamples = 1\nvalue = [1, 0, 0, 0, 0, 0, 0, 0, 0, 0, 0, 0, 0, 0]\nclass = action", fillcolor="#e58139"] ;
51 -> 52 ;
53 [label="gini = 0.0\nsamples = 1\nvalue = [0, 0, 0, 0, 0, 0, 0, 1, 0, 0, 0, 0, 0, 0]\nclass = horror", fillcolor="#399de5"] ;
51 -> 53 ;
54 [label="score <= 7.95\ngini = 0.404\nsamples = 21\nvalue = [0, 0, 1, 1, 0, 16, 0, 0, 0, 0, 1, 2, 0, 0]\nclass = drama", fillcolor="#6decb3"] ;
46 -> 54 ;
55 [label="release_year <= 2001.5\ngini = 0.32\nsamples = 16\nvalue = [0, 0, 0, 1, 0, 13, 0, 0, 0, 0, 0, 2, 0, 0]\nclass = drama", fillcolor="#63ebae"] ;
54 -> 55 ;
56 [label="gini = 0.0\nsamples = 7\nvalue = [0, 0, 0, 0, 0, 7, 0, 0, 0, 0, 0, 0, 0, 0]\nclass = drama", fillcolor="#39e598"] ;
55 -> 56 ;
57 [label="score <= 7.75\ngini = 0.494\nsamples = 9\nvalue = [0, 0, 0, 1, 0, 6, 0, 0, 0, 0, 0, 2, 0, 0]\nclass = drama", fillcolor="#8ef0c4"] ;
55 -> 57 ;
58 [label="score <= 7.25\ngini = 0.64\nsamples = 5\nvalue = [0, 0, 0, 1, 0, 2, 0, 0, 0, 0, 0, 2, 0, 0]\nclass = drama", fillcolor="#ffffff"] ;
57 -> 58 ;
59 [label="gini = 0.0\nsamples = 1\nvalue = [0, 0, 0, 0, 0, 1, 0, 0, 0, 0, 0, 0, 0, 0]\nclass = drama", fillcolor="#39e598"] ;
58 -> 59 ;
60 [label="score <= 7.45\ngini = 0.625\nsamples = 4\nvalue = [0, 0, 0, 1, 0, 1, 0, 0, 0, 0, 0, 2, 0, 0]\nclass = sports", fillcolor="#f6bdf0"] ;
58 -> 60 ;
61 [label="gini = 0.5\nsamples = 2\nvalue = [0, 0, 0, 1, 0, 0, 0, 0, 0, 0, 0, 1, 0, 0]\nclass = crime", fillcolor="#ffffff"] ;
60 -> 61 ;
62 [label="score <= 7.65\ngini = 0.5\nsamples = 2\nvalue = [0, 0, 0, 0, 0, 1, 0, 0, 0, 0, 0, 1, 0, 0]\nclass = drama", fillcolor="#ffffff"] ;
60 -> 62 ;
63 [label="gini = 0.0\nsamples = 1\nvalue = [0, 0, 0, 0, 0, 1, 0, 0, 0, 0, 0, 0, 0, 0]\nclass = drama", fillcolor="#39e598"] ;
62 -> 63 ;
64 [label="gini = 0.0\nsamples = 1\nvalue = [0, 0, 0, 0, 0, 0, 0, 0, 0, 0, 0, 1, 0, 0]\nclass = sports", fillcolor="#e539d1"] ;
62 -> 64 ;
65 [label="gini = 0.0\nsamples = 4\nvalue = [0, 0, 0, 0, 0, 4, 0, 0, 0, 0, 0, 0, 0, 0]\nclass = drama", fillcolor="#39e598"] ;
57 -> 65 ;
66 [label="score <= 8.05\ngini = 0.56\nsamples = 5\nvalue = [0, 0, 1, 0, 0, 3, 0, 0, 0, 0, 1, 0, 0, 0]\nclass = drama", fillcolor="#9cf2cc"] ;
54 -> 66 ;
67 [label="release_year <= 2002.0\ngini = 0.667\nsamples = 3\nvalue = [0, 0, 1, 0, 0, 1, 0, 0, 0, 0, 1, 0, 0, 0]\nclass = comedy", fillcolor="#ffffff"] ;
66 -> 67 ;
68 [label="gini = 0.0\nsamples = 1\nvalue = [0, 0, 1, 0, 0, 0, 0, 0, 0, 0, 0, 0, 0, 0]\nclass = comedy", fillcolor="#b7e539"] ;
67 -> 68 ;
69 [label="release_year <= 2003.5\ngini = 0.5\nsamples = 2\nvalue = [0, 0, 0, 0, 0, 1, 0, 0, 0, 0, 1, 0, 0, 0]\nclass = drama", fillcolor="#ffffff"] ;
67 -> 69 ;
70 [label="gini = 0.0\nsamples = 1\nvalue = [0, 0, 0, 0, 0, 1, 0, 0, 0, 0, 0, 0, 0, 0]\nclass = drama", fillcolor="#39e598"] ;
69 -> 70 ;
71 [label="gini = 0.0\nsamples = 1\nvalue = [0, 0, 0, 0, 0, 0, 0, 0, 0, 0, 1, 0, 0, 0]\nclass = scifi", fillcolor="#b139e5"] ;
69 -> 71 ;
72 [label="gini = 0.0\nsamples = 2\nvalue = [0, 0, 0, 0, 0, 2, 0, 0, 0, 0, 0, 0, 0, 0]\nclass = drama", fillcolor="#39e598"] ;
66 -> 72 ;
73 [label="score <= 7.05\ngini = 0.796\nsamples = 243\nvalue = [2, 3, 34, 13, 14, 91, 15, 4, 4, 13, 2, 42, 2\n4]\nclass = drama", fillcolor="#cff9e6"] ;
1 -> 73 ;
74 [label="release_year <= 2010.0\ngini = 0.696\nsamples = 41\nvalue = [0, 1, 4, 2, 0, 21, 2, 2, 2, 1, 0, 6, 0, 0]\nclass = drama", fillcolor="#aaf4d3"] ;
73 -> 74 ;
75 [label="score <= 6.95\ngini = 0.75\nsamples = 4\nvalue = [0, 1, 1, 1, 0, 0, 0, 0, 0, 0, 0, 1, 0, 0]\nclass = animation", fillcolor="#ffffff"] ;
74 -> 75 ;
76 [label="release_year <= 2007.5\ngini = 0.5\nsamples = 2\nvalue = [0, 1, 1, 0, 0, 0, 0, 0, 0, 0, 0, 0, 0, 0]\nclass = animation", fillcolor="#ffffff"] ;
75 -> 76 ;
77 [label="gini = 0.0\nsamples = 1\nvalue = [0, 0, 1, 0, 0, 0, 0, 0, 0, 0, 0, 0, 0, 0]\nclass = comedy", fillcolor="#b7e539"] ;
76 -> 77 ;
78 [label="gini = 0.0\nsamples = 1\nvalue = [0, 1, 0, 0, 0, 0, 0, 0, 0, 0, 0, 0, 0, 0]\nclass = animation", fillcolor="#e5c839"] ;
76 -> 78 ;
79 [label="release_year <= 2008.5\ngini = 0.5\nsamples = 2\nvalue = [0, 0, 0, 1, 0, 0, 0, 0, 0, 0, 0, 1, 0, 0]\nclass = crime", fillcolor="#ffffff"] ;
75 -> 79 ;
80 [label="gini = 0.0\nsamples = 1\nvalue = [0, 0, 0, 0, 0, 0, 0, 0, 0, 0, 0, 1, 0, 0]\nclass = sports", fillcolor="#e539d1"] ;
79 -> 80 ;
81 [label="gini = 0.0\nsamples = 1\nvalue = [0, 0, 0, 1, 0, 0, 0, 0, 0, 0, 0, 0, 0, 0]\nclass = crime", fillcolor="#6de539"] ;
79 -> 81 ;
82 [label="release_year <= 2017.5\ngini = 0.643\nsamples = 37\nvalue = [0, 0, 3, 1, 0, 21, 2, 2, 2, 1, 0, 5, 0, 0]\nclass = drama", fillcolor="#9cf2cc"] ;
74 -> 82 ;
83 [label="release_year <= 2013.5\ngini = 0.5\nsamples = 16\nvalue = [0, 0, 0, 0, 0, 11, 0, 1, 1, 1, 0, 2, 0, 0]\nclass = drama", fillcolor="#80eebd"] ;
82 -> 83 ;
84 [label="release_year <= 2012.0\ngini = 0.5\nsamples = 2\nvalue = [0, 0, 0, 0, 0, 1, 0, 0, 0, 1, 0, 0, 0, 0]\nclass = drama", fillcolor="#ffffff"] ;
83 -> 84 ;
85 [label="gini = 0.0\nsamples = 1\nvalue = [0, 0, 0, 0, 0, 1, 0, 0, 0, 0, 0, 0, 0, 0]\nclass = drama", fillcolor="#39e598"] ;
84 -> 85 ;
86 [label="gini = 0.0\nsamples = 1\nvalue = [0, 0, 0, 0, 0, 0, 0, 0, 0, 1, 0, 0, 0, 0]\nclass = romance", fillcolor="#6739e5"] ;
84 -> 86 ;
87 [label="score <= 6.95\ngini = 0.459\nsamples = 14\nvalue = [0, 0, 0, 0, 0, 10, 0, 1, 1, 0, 0, 2, 0, 0]\nclass = drama", fillcolor="#7beeba"] ;
83 -> 87 ;
88 [label="release_year <= 2015.5\ngini = 0.245\nsamples = 7\nvalue = [0, 0, 0, 0, 0, 6, 0, 0, 0, 0, 0, 1, 0, 0]\nclass = drama", fillcolor="#5ae9a9"] ;
87 -> 88 ;
89 [label="release_year <= 2014.5\ngini = 0.444\nsamples = 3\nvalue = [0, 0, 0, 0, 0, 2, 0, 0, 0, 0, 0, 1, 0, 0]\nclass = drama", fillcolor="#9cf2cc"] ;
88 -> 89 ;
90 [label="gini = 0.0\nsamples = 1\nvalue = [0, 0, 0, 0, 0, 1, 0, 0, 0, 0, 0, 0, 0, 0]\nclass = drama", fillcolor="#39e598"] ;
89 -> 90 ;
91 [label="gini = 0.5\nsamples = 2\nvalue = [0, 0, 0, 0, 0, 1, 0, 0, 0, 0, 0, 1, 0, 0]\nclass = drama", fillcolor="#ffffff"] ;
89 -> 91 ;
92 [label="gini = 0.0\nsamples = 4\nvalue = [0, 0, 0, 0, 0, 4, 0, 0, 0, 0, 0, 0, 0, 0]\nclass = drama", fillcolor="#39e598"] ;
88 -> 92 ;
93 [label="release_year <= 2016.5\ngini = 0.612\nsamples = 7\nvalue = [0, 0, 0, 0, 0, 4, 0, 1, 1, 0, 0, 1, 0, 0]\nclass = drama", fillcolor="#9cf2cc"] ;
87 -> 93 ;
94 [label="release_year <= 2015.5\ngini = 0.375\nsamples = 4\nvalue = [0, 0, 0, 0, 0, 3, 0, 1, 0, 0, 0, 0, 0, 0]\nclass = drama", fillcolor="#7beeba"] ;
93 -> 94 ;
95 [label="gini = 0.0\nsamples = 2\nvalue = [0, 0, 0, 0, 0, 2, 0, 0, 0, 0, 0, 0, 0, 0]\nclass = drama", fillcolor="#39e598"] ;
94 -> 95 ;
96 [label="gini = 0.5\nsamples = 2\nvalue = [0, 0, 0, 0, 0, 1, 0, 1, 0, 0, 0, 0, 0, 0]\nclass = drama", fillcolor="#ffffff"] ;
94 -> 96 ;
97 [label="gini = 0.667\nsamples = 3\nvalue = [0, 0, 0, 0, 0, 1, 0, 0, 1, 0, 0, 1, 0, 0]\nclass = drama", fillcolor="#ffffff"] ;
93 -> 97 ;
98 [label="score <= 6.95\ngini = 0.717\nsamples = 21\nvalue = [0, 0, 3, 1, 0, 10, 2, 1, 1, 0, 0, 3, 0, 0]\nclass = drama", fillcolor="#b2f5d7"] ;
82 -> 98 ;
99 [label="release_year <= 2019.5\ngini = 0.744\nsamples = 11\nvalue = [0, 0, 3, 1, 0, 4, 0, 0, 1, 0, 0, 2, 0, 0]\nclass = drama", fillcolor="#e6fcf2"] ;
98 -> 99 ;
100 [label="release_year <= 2018.5\ngini = 0.64\nsamples = 5\nvalue = [0, 0, 1, 0, 0, 2, 0, 0, 0, 0, 0, 2, 0, 0]\nclass = drama", fillcolor="#ffffff"] ;
99 -> 100 ;
101 [label="gini = 0.0\nsamples = 1\nvalue = [0, 0, 0, 0, 0, 1, 0, 0, 0, 0, 0, 0, 0, 0]\nclass = drama", fillcolor="#39e598"] ;
100 -> 101 ;
102 [label="gini = 0.625\nsamples = 4\nvalue = [0, 0, 1, 0, 0, 1, 0, 0, 0, 0, 0, 2, 0, 0]\nclass = sports", fillcolor="#f6bdf0"] ;
100 -> 102 ;
103 [label="release_year <= 2020.5\ngini = 0.722\nsamples = 6\nvalue = [0, 0, 2, 1, 0, 2, 0, 0, 1, 0, 0, 0, 0, 0]\nclass = comedy", fillcolor="#ffffff"] ;
99 -> 103 ;
104 [label="gini = 0.667\nsamples = 3\nvalue = [0, 0, 1, 0, 0, 1, 0, 0, 1, 0, 0, 0, 0, 0]\nclass = comedy", fillcolor="#ffffff"] ;
103 -> 104 ;
105 [label="gini = 0.667\nsamples = 3\nvalue = [0, 0, 1, 1, 0, 1, 0, 0, 0, 0, 0, 0, 0, 0]\nclass = comedy", fillcolor="#ffffff"] ;
103 -> 105 ;
106 [label="release_year <= 2018.5\ngini = 0.58\nsamples = 10\nvalue = [0, 0, 0, 0, 0, 6, 2, 1, 0, 0, 0, 1, 0, 0]\nclass = drama", fillcolor="#9cf2cc"] ;
98 -> 106 ;
107 [label="gini = 0.625\nsamples = 4\nvalue = [0, 0, 0, 0, 0, 1, 2, 0, 0, 0, 0, 1, 0, 0]\nclass = fantasy", fillcolor="#bdf6f5"] ;
106 -> 107 ;
108 [label="release_year <= 2019.5\ngini = 0.278\nsamples = 6\nvalue = [0, 0, 0, 0, 0, 5, 0, 1, 0, 0, 0, 0, 0, 0]\nclass = drama", fillcolor="#61eaad"] ;
106 -> 108 ;
109 [label="gini = 0.5\nsamples = 2\nvalue = [0, 0, 0, 0, 0, 1, 0, 1, 0, 0, 0, 0, 0, 0]\nclass = drama", fillcolor="#ffffff"] ;
108 -> 109 ;
110 [label="gini = 0.0\nsamples = 4\nvalue = [0, 0, 0, 0, 0, 4, 0, 0, 0, 0, 0, 0, 0, 0]\nclass = drama", fillcolor="#39e598"] ;
108 -> 110 ;
111 [label="score <= 7.35\ngini = 0.81\nsamples = 202\nvalue = [2, 2, 30, 11, 14, 70, 13, 2, 2, 12, 2, 36, 2\n4]\nclass = drama", fillcolor="#d6faea"] ;
73 -> 111 ;
112 [label="release_year <= 2017.5\ngini = 0.828\nsamples = 69\nvalue = [1, 1, 13, 5, 4, 18, 3, 1, 1, 4, 1, 16, 0, 1]\nclass = drama", fillcolor="#f8fefb"] ;
111 -> 112 ;
113 [label="release_year <= 2005.5\ngini = 0.786\nsamples = 41\nvalue = [1, 1, 12, 3, 0, 10, 1, 1, 1, 1, 0, 10, 0, 0]\nclass = comedy", fillcolor="#fafdf2"] ;
112 -> 113 ;
114 [label="gini = 0.5\nsamples = 2\nvalue = [0, 0, 0, 0, 0, 1, 1, 0, 0, 0, 0, 0, 0, 0]\nclass = drama", fillcolor="#ffffff"] ;
113 -> 114 ;
115 [label="release_year <= 2007.5\ngini = 0.777\nsamples = 39\nvalue = [1, 1, 12, 3, 0, 9, 0, 1, 1, 1, 0, 10, 0, 0]\nclass = comedy", fillcolor="#fafdf1"] ;
113 -> 115 ;
116 [label="score <= 7.15\ngini = 0.48\nsamples = 5\nvalue = [0, 0, 2, 0, 0, 0, 0, 0, 0, 0, 0, 3, 0, 0]\nclass = sports", fillcolor="#f6bdf0"] ;
115 -> 116 ;
117 [label="release_year <= 2006.5\ngini = 0.444\nsamples = 3\nvalue = [0, 0, 2, 0, 0, 0, 0, 0, 0, 0, 0, 1, 0, 0]\nclass = comedy", fillcolor="#dbf29c"] ;
116 -> 117 ;
118 [label="gini = 0.5\nsamples = 2\nvalue = [0, 0, 1, 0, 0, 0, 0, 0, 0, 0, 0, 1, 0, 0]\nclass = comedy", fillcolor="#ffffff"] ;
117 -> 118 ;
119 [label="gini = 0.0\nsamples = 1\nvalue = [0, 0, 1, 0, 0, 0, 0, 0, 0, 0, 0, 0, 0, 0]\nclass = comedy", fillcolor="#b7e539"] ;
117 -> 119 ;
120 [label="gini = 0.0\nsamples = 2\nvalue = [0, 0, 0, 0, 0, 0, 0, 0, 0, 0, 0, 2, 0, 0]\nclass = sports", fillcolor="#e539d1"] ;
116 -> 120 ;
121 [label="release_year <= 2015.5\ngini = 0.789\nsamples = 34\nvalue = [1, 1, 10, 3, 0, 9, 0, 1, 1, 1, 0, 7, 0, 0]\nclass = comedy", fillcolor="#fcfef7"] ;
115 -> 121 ;
122 [label="release_year <= 2012.5\ngini = 0.748\nsamples = 21\nvalue = [1, 0, 7, 1, 0, 7, 0, 1, 1, 0, 0, 3, 0, 0]\nclass = comedy", fillcolor="#ffffff"] ;
121 -> 122 ;
123 [label="release_year <= 2010.5\ngini = 0.793\nsamples = 11\nvalue = [1, 0, 2, 1, 0, 3, 0, 1, 0, 0, 0, 3, 0, 0]\nclass = drama", fillcolor="#ffffff"] ;
122 -> 123 ;
124 [label="score <= 7.2\ngini = 0.722\nsamples = 6\nvalue = [0, 0, 2, 0, 0, 2, 0, 1, 0, 0, 0, 1, 0, 0]\nclass = comedy", fillcolor="#ffffff"] ;
123 -> 124 ;
125 [label="release_year <= 2009.0\ngini = 0.72\nsamples = 5\nvalue = [0, 0, 1, 0, 0, 2, 0, 1, 0, 0, 0, 1, 0, 0]\nclass = drama", fillcolor="#cef8e5"] ;
124 -> 125 ;
126 [label="gini = 0.5\nsamples = 2\nvalue = [0, 0, 1, 0, 0, 1, 0, 0, 0, 0, 0, 0, 0, 0]\nclass = comedy", fillcolor="#ffffff"] ;
125 -> 126 ;
127 [label="gini = 0.667\nsamples = 3\nvalue = [0, 0, 0, 0, 0, 1, 0, 1, 0, 0, 0, 1, 0, 0]\nclass = drama", fillcolor="#ffffff"] ;
125 -> 127 ;
128 [label="gini = 0.0\nsamples = 1\nvalue = [0, 0, 1, 0, 0, 0, 0, 0, 0, 0, 0, 0, 0, 0]\nclass = comedy", fillcolor="#b7e539"] ;
124 -> 128 ;
129 [label="score <= 7.15\ngini = 0.72\nsamples = 5\nvalue = [1, 0, 0, 1, 0, 1, 0, 0, 0, 0, 0, 2, 0, 0]\nclass = sports", fillcolor="#f8cef4"] ;
123 -> 129 ;
130 [label="gini = 0.667\nsamples = 3\nvalue = [1, 0, 0, 0, 0, 1, 0, 0, 0, 0, 0, 1, 0, 0]\nclass = action", fillcolor="#ffffff"] ;
129 -> 130 ;
131 [label="score <= 7.25\ngini = 0.5\nsamples = 2\nvalue = [0, 0, 0, 1, 0, 0, 0, 0, 0, 0, 0, 1, 0, 0]\nclass = crime", fillcolor="#ffffff"] ;
129 -> 131 ;
132 [label="gini = 0.0\nsamples = 1\nvalue = [0, 0, 0, 1, 0, 0, 0, 0, 0, 0, 0, 0, 0, 0]\nclass = crime", fillcolor="#6de539"] ;
131 -> 132 ;
133 [label="gini = 0.0\nsamples = 1\nvalue = [0, 0, 0, 0, 0, 0, 0, 0, 0, 0, 0, 1, 0, 0]\nclass = sports", fillcolor="#e539d1"] ;
131 -> 133 ;
134 [label="score <= 7.25\ngini = 0.58\nsamples = 10\nvalue = [0, 0, 5, 0, 0, 4, 0, 0, 1, 0, 0, 0, 0, 0]\nclass = comedy", fillcolor="#f3fbde"] ;
122 -> 134 ;
135 [label="score <= 7.15\ngini = 0.593\nsamples = 9\nvalue = [0, 0, 4, 0, 0, 4, 0, 0, 1, 0, 0, 0, 0, 0]\nclass = comedy", fillcolor="#ffffff"] ;
134 -> 135 ;
136 [label="release_year <= 2013.5\ngini = 0.625\nsamples = 4\nvalue = [0, 0, 2, 0, 0, 1, 0, 0, 1, 0, 0, 0, 0, 0]\nclass = comedy", fillcolor="#e7f6bd"] ;
135 -> 136 ;
137 [label="gini = 0.5\nsamples = 2\nvalue = [0, 0, 1, 0, 0, 0, 0, 0, 1, 0, 0, 0, 0, 0]\nclass = comedy", fillcolor="#ffffff"] ;
136 -> 137 ;
138 [label="release_year <= 2014.5\ngini = 0.5\nsamples = 2\nvalue = [0, 0, 1, 0, 0, 1, 0, 0, 0, 0, 0, 0, 0, 0]\nclass = comedy", fillcolor="#ffffff"] ;
136 -> 138 ;
139 [label="gini = 0.0\nsamples = 1\nvalue = [0, 0, 0, 0, 0, 1, 0, 0, 0, 0, 0, 0, 0, 0]\nclass = drama", fillcolor="#39e598"] ;
138 -> 139 ;
140 [label="gini = 0.0\nsamples = 1\nvalue = [0, 0, 1, 0, 0, 0, 0, 0, 0, 0, 0, 0, 0, 0]\nclass = comedy", fillcolor="#b7e539"] ;
138 -> 140 ;
141 [label="release_year <= 2014.5\ngini = 0.48\nsamples = 5\nvalue = [0, 0, 2, 0, 0, 3, 0, 0, 0, 0, 0, 0, 0, 0]\nclass = drama", fillcolor="#bdf6dd"] ;
135 -> 141 ;
142 [label="release_year <= 2013.5\ngini = 0.444\nsamples = 3\nvalue = [0, 0, 2, 0, 0, 1, 0, 0, 0, 0, 0, 0, 0, 0]\nclass = comedy", fillcolor="#dbf29c"] ;
141 -> 142 ;
143 [label="gini = 0.0\nsamples = 1\nvalue = [0, 0, 0, 0, 0, 1, 0, 0, 0, 0, 0, 0, 0, 0]\nclass = drama", fillcolor="#39e598"] ;
142 -> 143 ;
144 [label="gini = 0.0\nsamples = 2\nvalue = [0, 0, 2, 0, 0, 0, 0, 0, 0, 0, 0, 0, 0, 0]\nclass = comedy", fillcolor="#b7e539"] ;
142 -> 144 ;
145 [label="gini = 0.0\nsamples = 2\nvalue = [0, 0, 0, 0, 0, 2, 0, 0, 0, 0, 0, 0, 0, 0]\nclass = drama", fillcolor="#39e598"] ;
141 -> 145 ;
146 [label="gini = 0.0\nsamples = 1\nvalue = [0, 0, 1, 0, 0, 0, 0, 0, 0, 0, 0, 0, 0, 0]\nclass = comedy", fillcolor="#b7e539"] ;
134 -> 146 ;
147 [label="score <= 7.15\ngini = 0.793\nsamples = 13\nvalue = [0, 1, 3, 2, 0, 2, 0, 0, 0, 1, 0, 4, 0, 0]\nclass = sports", fillcolor="#fcebfa"] ;
121 -> 147 ;
148 [label="gini = 0.667\nsamples = 3\nvalue = [0, 1, 1, 1, 0, 0, 0, 0, 0, 0, 0, 0, 0, 0]\nclass = animation", fillcolor="#ffffff"] ;
147 -> 148 ;
149 [label="release_year <= 2016.5\ngini = 0.74\nsamples = 10\nvalue = [0, 0, 2, 1, 0, 2, 0, 0, 0, 1, 0, 4, 0, 0]\nclass = sports", fillcolor="#f8cef4"] ;
147 -> 149 ;
150 [label="score <= 7.25\ngini = 0.56\nsamples = 5\nvalue = [0, 0, 1, 0, 0, 0, 0, 0, 0, 1, 0, 3, 0, 0]\nclass = sports", fillcolor="#f29ce8"] ;
149 -> 150 ;
151 [label="gini = 0.0\nsamples = 2\nvalue = [0, 0, 0, 0, 0, 0, 0, 0, 0, 0, 0, 2, 0, 0]\nclass = sports", fillcolor="#e539d1"] ;
150 -> 151 ;
152 [label="gini = 0.667\nsamples = 3\nvalue = [0, 0, 1, 0, 0, 0, 0, 0, 0, 1, 0, 1, 0, 0]\nclass = comedy", fillcolor="#ffffff"] ;
150 -> 152 ;
153 [label="score <= 7.25\ngini = 0.72\nsamples = 5\nvalue = [0, 0, 1, 1, 0, 2, 0, 0, 0, 0, 0, 1, 0, 0]\nclass = drama", fillcolor="#cef8e5"] ;
149 -> 153 ;
154 [label="gini = 0.667\nsamples = 3\nvalue = [0, 0, 1, 1, 0, 1, 0, 0, 0, 0, 0, 0, 0, 0]\nclass = comedy", fillcolor="#ffffff"] ;
153 -> 154 ;
155 [label="gini = 0.5\nsamples = 2\nvalue = [0, 0, 0, 0, 0, 1, 0, 0, 0, 0, 0, 1, 0, 0]\nclass = drama", fillcolor="#ffffff"] ;
153 -> 155 ;
156 [label="score <= 7.25\ngini = 0.827\nsamples = 28\nvalue = [0, 0, 1, 2, 4, 8, 2, 0, 0, 3, 1, 6, 0, 1]\nclass = drama", fillcolor="#edfdf6"] ;
112 -> 156 ;
157 [label="release_year <= 2019.5\ngini = 0.795\nsamples = 20\nvalue = [0, 0, 0, 2, 4, 7, 2, 0, 0, 2, 1, 2, 0, 0]\nclass = drama", fillcolor="#dafaec"] ;
156 -> 157 ;
158 [label="release_year <= 2018.5\ngini = 0.694\nsamples = 11\nvalue = [0, 0, 0, 0, 4, 4, 0, 0, 0, 2, 0, 1, 0, 0]\nclass = documentary", fillcolor="#ffffff"] ;
157 -> 158 ;
159 [label="score <= 7.15\ngini = 0.444\nsamples = 3\nvalue = [0, 0, 0, 0, 0, 2, 0, 0, 0, 1, 0, 0, 0, 0]\nclass = drama", fillcolor="#9cf2cc"] ;
158 -> 159 ;
160 [label="gini = 0.5\nsamples = 2\nvalue = [0, 0, 0, 0, 0, 1, 0, 0, 0, 1, 0, 0, 0, 0]\nclass = drama", fillcolor="#ffffff"] ;
159 -> 160 ;
161 [label="gini = 0.0\nsamples = 1\nvalue = [0, 0, 0, 0, 0, 1, 0, 0, 0, 0, 0, 0, 0, 0]\nclass = drama", fillcolor="#39e598"] ;
159 -> 161 ;
162 [label="score <= 7.15\ngini = 0.656\nsamples = 8\nvalue = [0, 0, 0, 0, 4, 2, 0, 0, 0, 1, 0, 1, 0, 0]\nclass = documentary", fillcolor="#bdf6c4"] ;
158 -> 162 ;
163 [label="gini = 0.444\nsamples = 3\nvalue = [0, 0, 0, 0, 2, 1, 0, 0, 0, 0, 0, 0, 0, 0]\nclass = documentary", fillcolor="#9cf2a6"] ;
162 -> 163 ;
164 [label="gini = 0.72\nsamples = 5\nvalue = [0, 0, 0, 0, 2, 1, 0, 0, 0, 1, 0, 1, 0, 0]\nclass = documentary", fillcolor="#cef8d2"] ;
162 -> 164 ;
165 [label="score <= 7.15\ngini = 0.765\nsamples = 9\nvalue = [0, 0, 0, 2, 0, 3, 2, 0, 0, 0, 1, 1, 0, 0]\nclass = drama", fillcolor="#e3fbf0"] ;
157 -> 165 ;
166 [label="release_year <= 2020.5\ngini = 0.375\nsamples = 4\nvalue = [0, 0, 0, 0, 0, 3, 0, 0, 0, 0, 0, 1, 0, 0]\nclass = drama", fillcolor="#7beeba"] ;
165 -> 166 ;
167 [label="gini = 0.5\nsamples = 2\nvalue = [0, 0, 0, 0, 0, 1, 0, 0, 0, 0, 0, 1, 0, 0]\nclass = drama", fillcolor="#ffffff"] ;
166 -> 167 ;
168 [label="gini = 0.0\nsamples = 2\nvalue = [0, 0, 0, 0, 0, 2, 0, 0, 0, 0, 0, 0, 0, 0]\nclass = drama", fillcolor="#39e598"] ;
166 -> 168 ;
169 [label="release_year <= 2020.5\ngini = 0.64\nsamples = 5\nvalue = [0, 0, 0, 2, 0, 0, 2, 0, 0, 0, 1, 0, 0, 0]\nclass = crime", fillcolor="#ffffff"] ;
165 -> 169 ;
170 [label="gini = 0.0\nsamples = 1\nvalue = [0, 0, 0, 1, 0, 0, 0, 0, 0, 0, 0, 0, 0, 0]\nclass = crime", fillcolor="#6de539"] ;
169 -> 170 ;
171 [label="release_year <= 2021.5\ngini = 0.625\nsamples = 4\nvalue = [0, 0, 0, 1, 0, 0, 2, 0, 0, 0, 1, 0, 0, 0]\nclass = fantasy", fillcolor="#bdf6f5"] ;
169 -> 171 ;
172 [label="gini = 0.444\nsamples = 3\nvalue = [0, 0, 0, 0, 0, 0, 2, 0, 0, 0, 1, 0, 0, 0]\nclass = fantasy", fillcolor="#9cf2f0"] ;
171 -> 172 ;
173 [label="gini = 0.0\nsamples = 1\nvalue = [0, 0, 0, 1, 0, 0, 0, 0, 0, 0, 0, 0, 0, 0]\nclass = crime", fillcolor="#6de539"] ;
171 -> 173 ;
174 [label="release_year <= 2021.0\ngini = 0.688\nsamples = 8\nvalue = [0, 0, 1, 0, 0, 1, 0, 0, 0, 1, 0, 4, 0, 1]\nclass = sports", fillcolor="#f4aaeb"] ;
156 -> 174 ;
175 [label="release_year <= 2018.5\ngini = 0.612\nsamples = 7\nvalue = [0, 0, 0, 0, 0, 1, 0, 0, 0, 1, 0, 4, 0, 1]\nclass = sports", fillcolor="#f29ce8"] ;
174 -> 175 ;
176 [label="gini = 0.667\nsamples = 3\nvalue = [0, 0, 0, 0, 0, 0, 0, 0, 0, 1, 0, 1, 0, 1]\nclass = romance", fillcolor="#ffffff"] ;
175 -> 176 ;
177 [label="release_year <= 2019.5\ngini = 0.375\nsamples = 4\nvalue = [0, 0, 0, 0, 0, 1, 0, 0, 0, 0, 0, 3, 0, 0]\nclass = sports", fillcolor="#ee7be0"] ;
175 -> 177 ;
178 [label="gini = 0.444\nsamples = 3\nvalue = [0, 0, 0, 0, 0, 1, 0, 0, 0, 0, 0, 2, 0, 0]\nclass = sports", fillcolor="#f29ce8"] ;
177 -> 178 ;
179 [label="gini = 0.0\nsamples = 1\nvalue = [0, 0, 0, 0, 0, 0, 0, 0, 0, 0, 0, 1, 0, 0]\nclass = sports", fillcolor="#e539d1"] ;
177 -> 179 ;
180 [label="gini = 0.0\nsamples = 1\nvalue = [0, 0, 1, 0, 0, 0, 0, 0, 0, 0, 0, 0, 0, 0]\nclass = comedy", fillcolor="#b7e539"] ;
174 -> 180 ;
181 [label="release_year <= 2012.5\ngini = 0.79\nsamples = 133\nvalue = [1, 1, 17, 6, 10, 52, 10, 1, 1, 8, 1, 20, 2\n3]\nclass = drama", fillcolor="#c7f8e2"] ;
111 -> 181 ;
182 [label="release_year <= 2006.5\ngini = 0.724\nsamples = 45\nvalue = [0, 0, 6, 2, 0, 21, 6, 0, 0, 4, 0, 5, 0, 1]\nclass = drama", fillcolor="#b3f5d7"] ;
181 -> 182 ;
183 [label="score <= 8.05\ngini = 0.5\nsamples = 2\nvalue = [0, 0, 1, 0, 0, 0, 0, 0, 0, 0, 0, 1, 0, 0]\nclass = comedy", fillcolor="#ffffff"] ;
182 -> 183 ;
184 [label="gini = 0.0\nsamples = 1\nvalue = [0, 0, 0, 0, 0, 0, 0, 0, 0, 0, 0, 1, 0, 0]\nclass = sports", fillcolor="#e539d1"] ;
183 -> 184 ;
185 [label="gini = 0.0\nsamples = 1\nvalue = [0, 0, 1, 0, 0, 0, 0, 0, 0, 0, 0, 0, 0, 0]\nclass = comedy", fillcolor="#b7e539"] ;
183 -> 185 ;
186 [label="score <= 7.45\ngini = 0.708\nsamples = 43\nvalue = [0, 0, 5, 2, 0, 21, 6, 0, 0, 4, 0, 4, 0, 1]\nclass = drama", fillcolor="#aff4d5"] ;
182 -> 186 ;
187 [label="release_year <= 2009.0\ngini = 0.494\nsamples = 9\nvalue = [0, 0, 0, 0, 0, 6, 0, 0, 0, 1, 0, 2, 0, 0]\nclass = drama", fillcolor="#8ef0c4"] ;
186 -> 187 ;
188 [label="gini = 0.0\nsamples = 3\nvalue = [0, 0, 0, 0, 0, 3, 0, 0, 0, 0, 0, 0, 0, 0]\nclass = drama", fillcolor="#39e598"] ;
187 -> 188 ;
189 [label="release_year <= 2010.5\ngini = 0.611\nsamples = 6\nvalue = [0, 0, 0, 0, 0, 3, 0, 0, 0, 1, 0, 2, 0, 0]\nclass = drama", fillcolor="#cef8e5"] ;
187 -> 189 ;
190 [label="gini = 0.5\nsamples = 2\nvalue = [0, 0, 0, 0, 0, 1, 0, 0, 0, 0, 0, 1, 0, 0]\nclass = drama", fillcolor="#ffffff"] ;
189 -> 190 ;
191 [label="release_year <= 2011.5\ngini = 0.625\nsamples = 4\nvalue = [0, 0, 0, 0, 0, 2, 0, 0, 0, 1, 0, 1, 0, 0]\nclass = drama", fillcolor="#bdf6dd"] ;
189 -> 191 ;
192 [label="gini = 0.5\nsamples = 2\nvalue = [0, 0, 0, 0, 0, 1, 0, 0, 0, 1, 0, 0, 0, 0]\nclass = drama", fillcolor="#ffffff"] ;
191 -> 192 ;
193 [label="gini = 0.5\nsamples = 2\nvalue = [0, 0, 0, 0, 0, 1, 0, 0, 0, 0, 0, 1, 0, 0]\nclass = drama", fillcolor="#ffffff"] ;
191 -> 193 ;
194 [label="release_year <= 2011.5\ngini = 0.737\nsamples = 34\nvalue = [0, 0, 5, 2, 0, 15, 6, 0, 0, 3, 0, 2, 0, 1]\nclass = drama", fillcolor="#bff7de"] ;
186 -> 194 ;
195 [label="score <= 7.85\ngini = 0.775\nsamples = 26\nvalue = [0, 0, 5, 2, 0, 10, 3, 0, 0, 3, 0, 2, 0, 1]\nclass = drama", fillcolor="#d0f9e6"] ;
194 -> 195 ;
196 [label="score <= 7.75\ngini = 0.828\nsamples = 16\nvalue = [0, 0, 3, 2, 0, 4, 2, 0, 0, 3, 0, 1, 0, 1]\nclass = drama", fillcolor="#f0fdf7"] ;
195 -> 196 ;
197 [label="release_year <= 2009.5\ngini = 0.818\nsamples = 15\nvalue = [0, 0, 3, 1, 0, 4, 2, 0, 0, 3, 0, 1, 0, 1]\nclass = drama", fillcolor="#effdf6"] ;
196 -> 197 ;
198 [label="release_year <= 2008.5\ngini = 0.777\nsamples = 11\nvalue = [0, 0, 2, 1, 0, 4, 1, 0, 0, 2, 0, 1, 0, 0]\nclass = drama", fillcolor="#d3f9e8"] ;
197 -> 198 ;
199 [label="release_year <= 2007.5\ngini = 0.776\nsamples = 7\nvalue = [0, 0, 1, 0, 0, 2, 1, 0, 0, 2, 0, 1, 0, 0]\nclass = drama", fillcolor="#ffffff"] ;
198 -> 199 ;
200 [label="score <= 7.55\ngini = 0.667\nsamples = 3\nvalue = [0, 0, 0, 0, 0, 1, 1, 0, 0, 1, 0, 0, 0, 0]\nclass = drama", fillcolor="#ffffff"] ;
199 -> 200 ;
201 [label="gini = 0.0\nsamples = 1\nvalue = [0, 0, 0, 0, 0, 1, 0, 0, 0, 0, 0, 0, 0, 0]\nclass = drama", fillcolor="#39e598"] ;
200 -> 201 ;
202 [label="score <= 7.65\ngini = 0.5\nsamples = 2\nvalue = [0, 0, 0, 0, 0, 0, 1, 0, 0, 1, 0, 0, 0, 0]\nclass = fantasy", fillcolor="#ffffff"] ;
200 -> 202 ;
203 [label="gini = 0.0\nsamples = 1\nvalue = [0, 0, 0, 0, 0, 0, 1, 0, 0, 0, 0, 0, 0, 0]\nclass = fantasy", fillcolor="#39e5e2"] ;
202 -> 203 ;
204 [label="gini = 0.0\nsamples = 1\nvalue = [0, 0, 0, 0, 0, 0, 0, 0, 0, 1, 0, 0, 0, 0]\nclass = romance", fillcolor="#6739e5"] ;
202 -> 204 ;
205 [label="score <= 7.55\ngini = 0.75\nsamples = 4\nvalue = [0, 0, 1, 0, 0, 1, 0, 0, 0, 1, 0, 1, 0, 0]\nclass = comedy", fillcolor="#ffffff"] ;
199 -> 205 ;
206 [label="gini = 0.0\nsamples = 1\nvalue = [0, 0, 0, 0, 0, 0, 0, 0, 0, 1, 0, 0, 0, 0]\nclass = romance", fillcolor="#6739e5"] ;
205 -> 206 ;
207 [label="score <= 7.65\ngini = 0.667\nsamples = 3\nvalue = [0, 0, 1, 0, 0, 1, 0, 0, 0, 0, 0, 1, 0, 0]\nclass = comedy", fillcolor="#ffffff"] ;
205 -> 207 ;
208 [label="gini = 0.0\nsamples = 1\nvalue = [0, 0, 0, 0, 0, 0, 0, 0, 0, 0, 0, 1, 0, 0]\nclass = sports", fillcolor="#e539d1"] ;
207 -> 208 ;
209 [label="gini = 0.5\nsamples = 2\nvalue = [0, 0, 1, 0, 0, 1, 0, 0, 0, 0, 0, 0, 0, 0]\nclass = comedy", fillcolor="#ffffff"] ;
207 -> 209 ;
210 [label="gini = 0.625\nsamples = 4\nvalue = [0, 0, 1, 1, 0, 2, 0, 0, 0, 0, 0, 0, 0, 0]\nclass = drama", fillcolor="#bdf6dd"] ;
198 -> 210 ;
211 [label="score <= 7.65\ngini = 0.75\nsamples = 4\nvalue = [0, 0, 1, 0, 0, 0, 1, 0, 0, 1, 0, 0, 0, 1]\nclass = comedy", fillcolor="#ffffff"] ;
197 -> 211 ;
212 [label="release_year <= 2010.5\ngini = 0.5\nsamples = 2\nvalue = [0, 0, 1, 0, 0, 0, 0, 0, 0, 0, 0, 0, 0, 1]\nclass = comedy", fillcolor="#ffffff"] ;
211 -> 212 ;
213 [label="gini = 0.0\nsamples = 1\nvalue = [0, 0, 0, 0, 0, 0, 0, 0, 0, 0, 0, 0, 0, 1]\nclass = war", fillcolor="#e5393c"] ;
212 -> 213 ;
214 [label="gini = 0.0\nsamples = 1\nvalue = [0, 0, 1, 0, 0, 0, 0, 0, 0, 0, 0, 0, 0, 0]\nclass = comedy", fillcolor="#b7e539"] ;
212 -> 214 ;
215 [label="gini = 0.5\nsamples = 2\nvalue = [0, 0, 0, 0, 0, 0, 1, 0, 0, 1, 0, 0, 0, 0]\nclass = fantasy", fillcolor="#ffffff"] ;
211 -> 215 ;
216 [label="gini = 0.0\nsamples = 1\nvalue = [0, 0, 0, 1, 0, 0, 0, 0, 0, 0, 0, 0, 0, 0]\nclass = crime", fillcolor="#6de539"] ;
196 -> 216 ;
217 [label="release_year <= 2007.5\ngini = 0.58\nsamples = 10\nvalue = [0, 0, 2, 0, 0, 6, 1, 0, 0, 0, 0, 1, 0, 0]\nclass = drama", fillcolor="#9cf2cc"] ;
195 -> 217 ;
218 [label="score <= 7.95\ngini = 0.667\nsamples = 3\nvalue = [0, 0, 1, 0, 0, 1, 0, 0, 0, 0, 0, 1, 0, 0]\nclass = comedy", fillcolor="#ffffff"] ;
217 -> 218 ;
219 [label="gini = 0.0\nsamples = 1\nvalue = [0, 0, 1, 0, 0, 0, 0, 0, 0, 0, 0, 0, 0, 0]\nclass = comedy", fillcolor="#b7e539"] ;
218 -> 219 ;
220 [label="score <= 8.05\ngini = 0.5\nsamples = 2\nvalue = [0, 0, 0, 0, 0, 1, 0, 0, 0, 0, 0, 1, 0, 0]\nclass = drama", fillcolor="#ffffff"] ;
218 -> 220 ;
221 [label="gini = 0.0\nsamples = 1\nvalue = [0, 0, 0, 0, 0, 0, 0, 0, 0, 0, 0, 1, 0, 0]\nclass = sports", fillcolor="#e539d1"] ;
220 -> 221 ;
222 [label="gini = 0.0\nsamples = 1\nvalue = [0, 0, 0, 0, 0, 1, 0, 0, 0, 0, 0, 0, 0, 0]\nclass = drama", fillcolor="#39e598"] ;
220 -> 222 ;
223 [label="score <= 8.05\ngini = 0.449\nsamples = 7\nvalue = [0, 0, 1, 0, 0, 5, 1, 0, 0, 0, 0, 0, 0, 0]\nclass = drama", fillcolor="#7beeba"] ;
217 -> 223 ;
224 [label="gini = 0.0\nsamples = 3\nvalue = [0, 0, 0, 0, 0, 3, 0, 0, 0, 0, 0, 0, 0, 0]\nclass = drama", fillcolor="#39e598"] ;
223 -> 224 ;
225 [label="score <= 8.15\ngini = 0.625\nsamples = 4\nvalue = [0, 0, 1, 0, 0, 2, 1, 0, 0, 0, 0, 0, 0, 0]\nclass = drama", fillcolor="#bdf6dd"] ;
223 -> 225 ;
226 [label="release_year <= 2010.5\ngini = 0.667\nsamples = 3\nvalue = [0, 0, 1, 0, 0, 1, 1, 0, 0, 0, 0, 0, 0, 0]\nclass = comedy", fillcolor="#ffffff"] ;
225 -> 226 ;
227 [label="gini = 0.5\nsamples = 2\nvalue = [0, 0, 0, 0, 0, 1, 1, 0, 0, 0, 0, 0, 0, 0]\nclass = drama", fillcolor="#ffffff"] ;
226 -> 227 ;
228 [label="gini = 0.0\nsamples = 1\nvalue = [0, 0, 1, 0, 0, 0, 0, 0, 0, 0, 0, 0, 0, 0]\nclass = comedy", fillcolor="#b7e539"] ;
226 -> 228 ;
229 [label="gini = 0.0\nsamples = 1\nvalue = [0, 0, 0, 0, 0, 1, 0, 0, 0, 0, 0, 0, 0, 0]\nclass = drama", fillcolor="#39e598"] ;
225 -> 229 ;
230 [label="score <= 8.15\ngini = 0.469\nsamples = 8\nvalue = [0, 0, 0, 0, 0, 5, 3, 0, 0, 0, 0, 0, 0, 0]\nclass = drama", fillcolor="#b0f5d6"] ;
194 -> 230 ;
231 [label="score <= 7.6\ngini = 0.49\nsamples = 7\nvalue = [0, 0, 0, 0, 0, 4, 3, 0, 0, 0, 0, 0, 0, 0]\nclass = drama", fillcolor="#cef8e5"] ;
230 -> 231 ;
232 [label="gini = 0.5\nsamples = 2\nvalue = [0, 0, 0, 0, 0, 1, 1, 0, 0, 0, 0, 0, 0, 0]\nclass = drama", fillcolor="#ffffff"] ;
231 -> 232 ;
233 [label="score <= 7.9\ngini = 0.48\nsamples = 5\nvalue = [0, 0, 0, 0, 0, 3, 2, 0, 0, 0, 0, 0, 0, 0]\nclass = drama", fillcolor="#bdf6dd"] ;
231 -> 233 ;
234 [label="gini = 0.444\nsamples = 3\nvalue = [0, 0, 0, 0, 0, 2, 1, 0, 0, 0, 0, 0, 0, 0]\nclass = drama", fillcolor="#9cf2cc"] ;
233 -> 234 ;
235 [label="gini = 0.5\nsamples = 2\nvalue = [0, 0, 0, 0, 0, 1, 1, 0, 0, 0, 0, 0, 0, 0]\nclass = drama", fillcolor="#ffffff"] ;
233 -> 235 ;
236 [label="gini = 0.0\nsamples = 1\nvalue = [0, 0, 0, 0, 0, 1, 0, 0, 0, 0, 0, 0, 0, 0]\nclass = drama", fillcolor="#39e598"] ;
230 -> 236 ;
237 [label="release_year <= 2013.5\ngini = 0.81\nsamples = 88\nvalue = [1, 1, 11, 4, 10, 31, 4, 1, 1, 4, 1, 15, 2, 2]\nclass = drama", fillcolor="#d4f9e8"] ;
181 -> 237 ;
238 [label="score <= 7.75\ngini = 0.594\nsamples = 8\nvalue = [0, 0, 1, 0, 0, 3, 0, 0, 0, 0, 0, 4, 0, 0]\nclass = sports", fillcolor="#fad7f6"] ;
237 -> 238 ;
239 [label="score <= 7.45\ngini = 0.375\nsamples = 4\nvalue = [0, 0, 1, 0, 0, 0, 0, 0, 0, 0, 0, 3, 0, 0]\nclass = sports", fillcolor="#ee7be0"] ;
238 -> 239 ;
240 [label="gini = 0.0\nsamples = 1\nvalue = [0, 0, 1, 0, 0, 0, 0, 0, 0, 0, 0, 0, 0, 0]\nclass = comedy", fillcolor="#b7e539"] ;
239 -> 240 ;
241 [label="gini = 0.0\nsamples = 3\nvalue = [0, 0, 0, 0, 0, 0, 0, 0, 0, 0, 0, 3, 0, 0]\nclass = sports", fillcolor="#e539d1"] ;
239 -> 241 ;
242 [label="score <= 7.9\ngini = 0.375\nsamples = 4\nvalue = [0, 0, 0, 0, 0, 3, 0, 0, 0, 0, 0, 1, 0, 0]\nclass = drama", fillcolor="#7beeba"] ;
238 -> 242 ;
243 [label="gini = 0.0\nsamples = 2\nvalue = [0, 0, 0, 0, 0, 2, 0, 0, 0, 0, 0, 0, 0, 0]\nclass = drama", fillcolor="#39e598"] ;
242 -> 243 ;
244 [label="score <= 8.05\ngini = 0.5\nsamples = 2\nvalue = [0, 0, 0, 0, 0, 1, 0, 0, 0, 0, 0, 1, 0, 0]\nclass = drama", fillcolor="#ffffff"] ;
242 -> 244 ;
245 [label="gini = 0.0\nsamples = 1\nvalue = [0, 0, 0, 0, 0, 0, 0, 0, 0, 0, 0, 1, 0, 0]\nclass = sports", fillcolor="#e539d1"] ;
244 -> 245 ;
246 [label="gini = 0.0\nsamples = 1\nvalue = [0, 0, 0, 0, 0, 1, 0, 0, 0, 0, 0, 0, 0, 0]\nclass = drama", fillcolor="#39e598"] ;
244 -> 246 ;
247 [label="score <= 8.05\ngini = 0.818\nsamples = 80\nvalue = [1, 1, 10, 4, 10, 28, 4, 1, 1, 4, 1, 11, 2, 2]\nclass = drama", fillcolor="#cef9e6"] ;
237 -> 247 ;
248 [label="score <= 7.85\ngini = 0.8\nsamples = 65\nvalue = [0, 1, 8, 3, 8, 25, 4, 1, 1, 3, 1, 7, 1, 2]\nclass = drama", fillcolor="#c4f7e0"] ;
247 -> 248 ;
249 [label="release_year <= 2016.5\ngini = 0.812\nsamples = 51\nvalue = [0, 1, 5, 3, 5, 19, 4, 1, 1, 3, 0, 6, 1, 2]\nclass = drama", fillcolor="#c6f7e1"] ;
248 -> 249 ;
250 [label="release_year <= 2015.5\ngini = 0.853\nsamples = 15\nvalue = [0, 0, 2, 1, 0, 4, 2, 0, 1, 1, 0, 1, 1, 2]\nclass = drama", fillcolor="#e1fbef"] ;
249 -> 250 ;
251 [label="score <= 7.75\ngini = 0.78\nsamples = 10\nvalue = [0, 0, 0, 1, 0, 4, 1, 0, 1, 0, 0, 1, 1, 1]\nclass = drama", fillcolor="#bdf6dd"] ;
250 -> 251 ;
252 [label="score <= 7.65\ngini = 0.612\nsamples = 7\nvalue = [0, 0, 0, 0, 0, 4, 0, 0, 1, 0, 0, 1, 1, 0]\nclass = drama", fillcolor="#9cf2cc"] ;
251 -> 252 ;
253 [label="release_year <= 2014.5\ngini = 0.56\nsamples = 5\nvalue = [0, 0, 0, 0, 0, 3, 0, 0, 1, 0, 0, 1, 0, 0]\nclass = drama", fillcolor="#9cf2cc"] ;
252 -> 253 ;
254 [label="score <= 7.55\ngini = 0.444\nsamples = 3\nvalue = [0, 0, 0, 0, 0, 2, 0, 0, 0, 0, 0, 1, 0, 0]\nclass = drama", fillcolor="#9cf2cc"] ;
253 -> 254 ;
255 [label="gini = 0.5\nsamples = 2\nvalue = [0, 0, 0, 0, 0, 1, 0, 0, 0, 0, 0, 1, 0, 0]\nclass = drama", fillcolor="#ffffff"] ;
254 -> 255 ;
256 [label="gini = 0.0\nsamples = 1\nvalue = [0, 0, 0, 0, 0, 1, 0, 0, 0, 0, 0, 0, 0, 0]\nclass = drama", fillcolor="#39e598"] ;
254 -> 256 ;
257 [label="score <= 7.5\ngini = 0.5\nsamples = 2\nvalue = [0, 0, 0, 0, 0, 1, 0, 0, 1, 0, 0, 0, 0, 0]\nclass = drama", fillcolor="#ffffff"] ;
253 -> 257 ;
258 [label="gini = 0.0\nsamples = 1\nvalue = [0, 0, 0, 0, 0, 1, 0, 0, 0, 0, 0, 0, 0, 0]\nclass = drama", fillcolor="#39e598"] ;
257 -> 258 ;
259 [label="gini = 0.0\nsamples = 1\nvalue = [0, 0, 0, 0, 0, 0, 0, 0, 1, 0, 0, 0, 0, 0]\nclass = musical", fillcolor="#3956e5"] ;
257 -> 259 ;
260 [label="gini = 0.5\nsamples = 2\nvalue = [0, 0, 0, 0, 0, 1, 0, 0, 0, 0, 0, 0, 1, 0]\nclass = drama", fillcolor="#ffffff"] ;
252 -> 260 ;
261 [label="release_year <= 2014.5\ngini = 0.667\nsamples = 3\nvalue = [0, 0, 0, 1, 0, 0, 1, 0, 0, 0, 0, 0, 0, 1]\nclass = crime", fillcolor="#ffffff"] ;
251 -> 261 ;
262 [label="gini = 0.5\nsamples = 2\nvalue = [0, 0, 0, 1, 0, 0, 1, 0, 0, 0, 0, 0, 0, 0]\nclass = crime", fillcolor="#ffffff"] ;
261 -> 262 ;
263 [label="gini = 0.0\nsamples = 1\nvalue = [0, 0, 0, 0, 0, 0, 0, 0, 0, 0, 0, 0, 0, 1]\nclass = war", fillcolor="#e5393c"] ;
261 -> 263 ;
264 [label="score <= 7.55\ngini = 0.72\nsamples = 5\nvalue = [0, 0, 2, 0, 0, 0, 1, 0, 0, 1, 0, 0, 0, 1]\nclass = comedy", fillcolor="#edf8ce"] ;
250 -> 264 ;
265 [label="gini = 0.5\nsamples = 2\nvalue = [0, 0, 1, 0, 0, 0, 1, 0, 0, 0, 0, 0, 0, 0]\nclass = comedy", fillcolor="#ffffff"] ;
264 -> 265 ;
266 [label="score <= 7.65\ngini = 0.667\nsamples = 3\nvalue = [0, 0, 1, 0, 0, 0, 0, 0, 0, 1, 0, 0, 0, 1]\nclass = comedy", fillcolor="#ffffff"] ;
264 -> 266 ;
267 [label="gini = 0.0\nsamples = 1\nvalue = [0, 0, 0, 0, 0, 0, 0, 0, 0, 0, 0, 0, 0, 1]\nclass = war", fillcolor="#e5393c"] ;
266 -> 267 ;
268 [label="score <= 7.75\ngini = 0.5\nsamples = 2\nvalue = [0, 0, 1, 0, 0, 0, 0, 0, 0, 1, 0, 0, 0, 0]\nclass = comedy", fillcolor="#ffffff"] ;
266 -> 268 ;
269 [label="gini = 0.0\nsamples = 1\nvalue = [0, 0, 0, 0, 0, 0, 0, 0, 0, 1, 0, 0, 0, 0]\nclass = romance", fillcolor="#6739e5"] ;
268 -> 269 ;
270 [label="gini = 0.0\nsamples = 1\nvalue = [0, 0, 1, 0, 0, 0, 0, 0, 0, 0, 0, 0, 0, 0]\nclass = comedy", fillcolor="#b7e539"] ;
268 -> 270 ;
271 [label="release_year <= 2019.5\ngini = 0.77\nsamples = 36\nvalue = [0, 1, 3, 2, 5, 15, 2, 1, 0, 2, 0, 5, 0, 0]\nclass = drama", fillcolor="#bff7de"] ;
249 -> 271 ;
272 [label="score <= 7.55\ngini = 0.749\nsamples = 23\nvalue = [0, 0, 2, 0, 2, 10, 2, 1, 0, 2, 0, 4, 0, 0]\nclass = drama", fillcolor="#c0f7de"] ;
271 -> 272 ;
273 [label="release_year <= 2017.5\ngini = 0.78\nsamples = 10\nvalue = [0, 0, 0, 0, 2, 3, 2, 0, 0, 2, 0, 1, 0, 0]\nclass = drama", fillcolor="#e6fcf2"] ;
272 -> 273 ;
274 [label="score <= 7.45\ngini = 0.694\nsamples = 7\nvalue = [0, 0, 0, 0, 1, 3, 0, 0, 0, 2, 0, 1, 0, 0]\nclass = drama", fillcolor="#d7faea"] ;
273 -> 274 ;
275 [label="gini = 0.667\nsamples = 6\nvalue = [0, 0, 0, 0, 1, 3, 0, 0, 0, 1, 0, 1, 0, 0]\nclass = drama", fillcolor="#b0f5d6"] ;
274 -> 275 ;
276 [label="gini = 0.0\nsamples = 1\nvalue = [0, 0, 0, 0, 0, 0, 0, 0, 0, 1, 0, 0, 0, 0]\nclass = romance", fillcolor="#6739e5"] ;
274 -> 276 ;
277 [label="score <= 7.45\ngini = 0.444\nsamples = 3\nvalue = [0, 0, 0, 0, 1, 0, 2, 0, 0, 0, 0, 0, 0, 0]\nclass = fantasy", fillcolor="#9cf2f0"] ;
273 -> 277 ;
278 [label="gini = 0.0\nsamples = 1\nvalue = [0, 0, 0, 0, 1, 0, 0, 0, 0, 0, 0, 0, 0, 0]\nclass = documentary", fillcolor="#39e54d"] ;
277 -> 278 ;
279 [label="gini = 0.0\nsamples = 2\nvalue = [0, 0, 0, 0, 0, 0, 2, 0, 0, 0, 0, 0, 0, 0]\nclass = fantasy", fillcolor="#39e5e2"] ;
277 -> 279 ;
280 [label="release_year <= 2017.5\ngini = 0.627\nsamples = 13\nvalue = [0, 0, 2, 0, 0, 7, 0, 1, 0, 0, 0, 3, 0, 0]\nclass = drama", fillcolor="#b0f5d6"] ;
272 -> 280 ;
281 [label="score <= 7.75\ngini = 0.667\nsamples = 3\nvalue = [0, 0, 1, 0, 0, 1, 0, 0, 0, 0, 0, 1, 0, 0]\nclass = comedy", fillcolor="#ffffff"] ;
280 -> 281 ;
282 [label="gini = 0.5\nsamples = 2\nvalue = [0, 0, 1, 0, 0, 0, 0, 0, 0, 0, 0, 1, 0, 0]\nclass = comedy", fillcolor="#ffffff"] ;
281 -> 282 ;
283 [label="gini = 0.0\nsamples = 1\nvalue = [0, 0, 0, 0, 0, 1, 0, 0, 0, 0, 0, 0, 0, 0]\nclass = drama", fillcolor="#39e598"] ;
281 -> 283 ;
284 [label="release_year <= 2018.5\ngini = 0.58\nsamples = 10\nvalue = [0, 0, 1, 0, 0, 6, 0, 1, 0, 0, 0, 2, 0, 0]\nclass = drama", fillcolor="#9cf2cc"] ;
280 -> 284 ;
285 [label="score <= 7.65\ngini = 0.444\nsamples = 3\nvalue = [0, 0, 0, 0, 0, 2, 0, 1, 0, 0, 0, 0, 0, 0]\nclass = drama", fillcolor="#9cf2cc"] ;
284 -> 285 ;
286 [label="gini = 0.5\nsamples = 2\nvalue = [0, 0, 0, 0, 0, 1, 0, 1, 0, 0, 0, 0, 0, 0]\nclass = drama", fillcolor="#ffffff"] ;
285 -> 286 ;
287 [label="gini = 0.0\nsamples = 1\nvalue = [0, 0, 0, 0, 0, 1, 0, 0, 0, 0, 0, 0, 0, 0]\nclass = drama", fillcolor="#39e598"] ;
285 -> 287 ;
288 [label="score <= 7.7\ngini = 0.571\nsamples = 7\nvalue = [0, 0, 1, 0, 0, 4, 0, 0, 0, 0, 0, 2, 0, 0]\nclass = drama", fillcolor="#b0f5d6"] ;
284 -> 288 ;
289 [label="gini = 0.444\nsamples = 3\nvalue = [0, 0, 0, 0, 0, 2, 0, 0, 0, 0, 0, 1, 0, 0]\nclass = drama", fillcolor="#9cf2cc"] ;
288 -> 289 ;
290 [label="gini = 0.625\nsamples = 4\nvalue = [0, 0, 1, 0, 0, 2, 0, 0, 0, 0, 0, 1, 0, 0]\nclass = drama", fillcolor="#bdf6dd"] ;
288 -> 290 ;
291 [label="score <= 7.75\ngini = 0.757\nsamples = 13\nvalue = [0, 1, 1, 2, 3, 5, 0, 0, 0, 0, 0, 1, 0, 0]\nclass = drama", fillcolor="#d7faea"] ;
271 -> 291 ;
292 [label="release_year <= 2020.5\ngini = 0.75\nsamples = 12\nvalue = [0, 1, 1, 2, 2, 5, 0, 0, 0, 0, 0, 1, 0, 0]\nclass = drama", fillcolor="#c4f7e0"] ;
291 -> 292 ;
293 [label="score <= 7.5\ngini = 0.64\nsamples = 5\nvalue = [0, 0, 0, 1, 2, 2, 0, 0, 0, 0, 0, 0, 0, 0]\nclass = documentary", fillcolor="#ffffff"] ;
292 -> 293 ;
294 [label="gini = 0.0\nsamples = 1\nvalue = [0, 0, 0, 0, 1, 0, 0, 0, 0, 0, 0, 0, 0, 0]\nclass = documentary", fillcolor="#39e54d"] ;
293 -> 294 ;
295 [label="score <= 7.65\ngini = 0.625\nsamples = 4\nvalue = [0, 0, 0, 1, 1, 2, 0, 0, 0, 0, 0, 0, 0, 0]\nclass = drama", fillcolor="#bdf6dd"] ;
293 -> 295 ;
296 [label="gini = 0.667\nsamples = 3\nvalue = [0, 0, 0, 1, 1, 1, 0, 0, 0, 0, 0, 0, 0, 0]\nclass = crime", fillcolor="#ffffff"] ;
295 -> 296 ;
297 [label="gini = 0.0\nsamples = 1\nvalue = [0, 0, 0, 0, 0, 1, 0, 0, 0, 0, 0, 0, 0, 0]\nclass = drama", fillcolor="#39e598"] ;
295 -> 297 ;
298 [label="score <= 7.55\ngini = 0.735\nsamples = 7\nvalue = [0, 1, 1, 1, 0, 3, 0, 0, 0, 0, 0, 1, 0, 0]\nclass = drama", fillcolor="#bdf6dd"] ;
292 -> 298 ;
299 [label="score <= 7.45\ngini = 0.667\nsamples = 6\nvalue = [0, 0, 1, 1, 0, 3, 0, 0, 0, 0, 0, 1, 0, 0]\nclass = drama", fillcolor="#b0f5d6"] ;
298 -> 299 ;
300 [label="gini = 0.625\nsamples = 4\nvalue = [0, 0, 1, 1, 0, 2, 0, 0, 0, 0, 0, 0, 0, 0]\nclass = drama", fillcolor="#bdf6dd"] ;
299 -> 300 ;
301 [label="gini = 0.5\nsamples = 2\nvalue = [0, 0, 0, 0, 0, 1, 0, 0, 0, 0, 0, 1, 0, 0]\nclass = drama", fillcolor="#ffffff"] ;
299 -> 301 ;
302 [label="gini = 0.0\nsamples = 1\nvalue = [0, 1, 0, 0, 0, 0, 0, 0, 0, 0, 0, 0, 0, 0]\nclass = animation", fillcolor="#e5c839"] ;
298 -> 302 ;
303 [label="gini = 0.0\nsamples = 1\nvalue = [0, 0, 0, 0, 1, 0, 0, 0, 0, 0, 0, 0, 0, 0]\nclass = documentary", fillcolor="#39e54d"] ;
291 -> 303 ;
304 [label="release_year <= 2017.5\ngini = 0.714\nsamples = 14\nvalue = [0, 0, 3, 0, 3, 6, 0, 0, 0, 0, 1, 1, 0, 0]\nclass = drama", fillcolor="#c9f8e3"] ;
248 -> 304 ;
305 [label="score <= 7.95\ngini = 0.688\nsamples = 8\nvalue = [0, 0, 0, 0, 3, 3, 0, 0, 0, 0, 1, 1, 0, 0]\nclass = documentary", fillcolor="#ffffff"] ;
304 -> 305 ;
306 [label="release_year <= 2015.5\ngini = 0.375\nsamples = 4\nvalue = [0, 0, 0, 0, 3, 1, 0, 0, 0, 0, 0, 0, 0, 0]\nclass = documentary", fillcolor="#7bee88"] ;
305 -> 306 ;
307 [label="gini = 0.0\nsamples = 1\nvalue = [0, 0, 0, 0, 1, 0, 0, 0, 0, 0, 0, 0, 0, 0]\nclass = documentary", fillcolor="#39e54d"] ;
306 -> 307 ;
308 [label="gini = 0.444\nsamples = 3\nvalue = [0, 0, 0, 0, 2, 1, 0, 0, 0, 0, 0, 0, 0, 0]\nclass = documentary", fillcolor="#9cf2a6"] ;
306 -> 308 ;
309 [label="release_year <= 2016.0\ngini = 0.625\nsamples = 4\nvalue = [0, 0, 0, 0, 0, 2, 0, 0, 0, 0, 1, 1, 0, 0]\nclass = drama", fillcolor="#bdf6dd"] ;
305 -> 309 ;
310 [label="release_year <= 2014.5\ngini = 0.444\nsamples = 3\nvalue = [0, 0, 0, 0, 0, 2, 0, 0, 0, 0, 0, 1, 0, 0]\nclass = drama", fillcolor="#9cf2cc"] ;
309 -> 310 ;
311 [label="gini = 0.5\nsamples = 2\nvalue = [0, 0, 0, 0, 0, 1, 0, 0, 0, 0, 0, 1, 0, 0]\nclass = drama", fillcolor="#ffffff"] ;
310 -> 311 ;
312 [label="gini = 0.0\nsamples = 1\nvalue = [0, 0, 0, 0, 0, 1, 0, 0, 0, 0, 0, 0, 0, 0]\nclass = drama", fillcolor="#39e598"] ;
310 -> 312 ;
313 [label="gini = 0.0\nsamples = 1\nvalue = [0, 0, 0, 0, 0, 0, 0, 0, 0, 0, 1, 0, 0, 0]\nclass = scifi", fillcolor="#b139e5"] ;
309 -> 313 ;
314 [label="release_year <= 2018.5\ngini = 0.5\nsamples = 6\nvalue = [0, 0, 3, 0, 0, 3, 0, 0, 0, 0, 0, 0, 0, 0]\nclass = comedy", fillcolor="#ffffff"] ;
304 -> 314 ;
315 [label="gini = 0.0\nsamples = 2\nvalue = [0, 0, 2, 0, 0, 0, 0, 0, 0, 0, 0, 0, 0, 0]\nclass = comedy", fillcolor="#b7e539"] ;
314 -> 315 ;
316 [label="score <= 7.95\ngini = 0.375\nsamples = 4\nvalue = [0, 0, 1, 0, 0, 3, 0, 0, 0, 0, 0, 0, 0, 0]\nclass = drama", fillcolor="#7beeba"] ;
314 -> 316 ;
317 [label="gini = 0.0\nsamples = 2\nvalue = [0, 0, 0, 0, 0, 2, 0, 0, 0, 0, 0, 0, 0, 0]\nclass = drama", fillcolor="#39e598"] ;
316 -> 317 ;
318 [label="release_year <= 2021.5\ngini = 0.5\nsamples = 2\nvalue = [0, 0, 1, 0, 0, 1, 0, 0, 0, 0, 0, 0, 0, 0]\nclass = comedy", fillcolor="#ffffff"] ;
316 -> 318 ;
319 [label="gini = 0.0\nsamples = 1\nvalue = [0, 0, 1, 0, 0, 0, 0, 0, 0, 0, 0, 0, 0, 0]\nclass = comedy", fillcolor="#b7e539"] ;
318 -> 319 ;
320 [label="gini = 0.0\nsamples = 1\nvalue = [0, 0, 0, 0, 0, 1, 0, 0, 0, 0, 0, 0, 0, 0]\nclass = drama", fillcolor="#39e598"] ;
318 -> 320 ;
321 [label="release_year <= 2014.5\ngini = 0.836\nsamples = 15\nvalue = [1, 0, 2, 1, 2, 3, 0, 0, 0, 1, 0, 4, 1, 0]\nclass = sports", fillcolor="#fdeffb"] ;
247 -> 321 ;
322 [label="score <= 8.15\ngini = 0.72\nsamples = 5\nvalue = [0, 0, 1, 0, 1, 2, 0, 0, 0, 0, 0, 0, 1, 0]\nclass = drama", fillcolor="#cef8e5"] ;
321 -> 322 ;
323 [label="gini = 0.0\nsamples = 1\nvalue = [0, 0, 0, 0, 0, 1, 0, 0, 0, 0, 0, 0, 0, 0]\nclass = drama", fillcolor="#39e598"] ;
322 -> 323 ;
324 [label="gini = 0.75\nsamples = 4\nvalue = [0, 0, 1, 0, 1, 1, 0, 0, 0, 0, 0, 0, 1, 0]\nclass = comedy", fillcolor="#ffffff"] ;
322 -> 324 ;
325 [label="release_year <= 2018.5\ngini = 0.78\nsamples = 10\nvalue = [1, 0, 1, 1, 1, 1, 0, 0, 0, 1, 0, 4, 0, 0]\nclass = sports", fillcolor="#f6bdf0"] ;
321 -> 325 ;
326 [label="release_year <= 2015.5\ngini = 0.32\nsamples = 5\nvalue = [0, 0, 0, 0, 0, 0, 0, 0, 0, 1, 0, 4, 0, 0]\nclass = sports", fillcolor="#ec6adc"] ;
325 -> 326 ;
327 [label="gini = 0.0\nsamples = 2\nvalue = [0, 0, 0, 0, 0, 0, 0, 0, 0, 0, 0, 2, 0, 0]\nclass = sports", fillcolor="#e539d1"] ;
326 -> 327 ;
328 [label="release_year <= 2016.5\ngini = 0.444\nsamples = 3\nvalue = [0, 0, 0, 0, 0, 0, 0, 0, 0, 1, 0, 2, 0, 0]\nclass = sports", fillcolor="#f29ce8"] ;
326 -> 328 ;
329 [label="gini = 0.0\nsamples = 1\nvalue = [0, 0, 0, 0, 0, 0, 0, 0, 0, 1, 0, 0, 0, 0]\nclass = romance", fillcolor="#6739e5"] ;
328 -> 329 ;
330 [label="gini = 0.0\nsamples = 2\nvalue = [0, 0, 0, 0, 0, 0, 0, 0, 0, 0, 0, 2, 0, 0]\nclass = sports", fillcolor="#e539d1"] ;
328 -> 330 ;
331 [label="release_year <= 2020.0\ngini = 0.8\nsamples = 5\nvalue = [1, 0, 1, 1, 1, 1, 0, 0, 0, 0, 0, 0, 0, 0]\nclass = action", fillcolor="#ffffff"] ;
325 -> 331 ;
332 [label="score <= 8.15\ngini = 0.667\nsamples = 3\nvalue = [0, 0, 1, 1, 0, 1, 0, 0, 0, 0, 0, 0, 0, 0]\nclass = comedy", fillcolor="#ffffff"] ;
331 -> 332 ;
333 [label="gini = 0.0\nsamples = 1\nvalue = [0, 0, 1, 0, 0, 0, 0, 0, 0, 0, 0, 0, 0, 0]\nclass = comedy", fillcolor="#b7e539"] ;
332 -> 333 ;
334 [label="gini = 0.5\nsamples = 2\nvalue = [0, 0, 0, 1, 0, 1, 0, 0, 0, 0, 0, 0, 0, 0]\nclass = crime", fillcolor="#ffffff"] ;
332 -> 334 ;
335 [label="gini = 0.5\nsamples = 2\nvalue = [1, 0, 0, 0, 1, 0, 0, 0, 0, 0, 0, 0, 0, 0]\nclass = action", fillcolor="#ffffff"] ;
331 -> 335 ;
336 [label="release_year <= 2001.0\ngini = 0.764\nsamples = 12\nvalue = [0, 0, 5, 1, 1, 2, 0, 0, 0, 0, 1, 1, 0, 1]\nclass = comedy", fillcolor="#e9f7c4"] ;
0 -> 336 [labeldistance=2.5, labelangle=-45, headlabel="False"] ;
337 [label="gini = 0.0\nsamples = 2\nvalue = [0, 0, 0, 0, 0, 2, 0, 0, 0, 0, 0, 0, 0, 0]\nclass = drama", fillcolor="#39e598"] ;
336 -> 337 ;
338 [label="score <= 8.75\ngini = 0.7\nsamples = 10\nvalue = [0, 0, 5, 1, 1, 0, 0, 0, 0, 0, 1, 1, 0, 1]\nclass = comedy", fillcolor="#dff3a7"] ;
336 -> 338 ;
339 [label="release_year <= 2006.5\ngini = 0.562\nsamples = 8\nvalue = [0, 0, 5, 1, 0, 0, 0, 0, 0, 0, 0, 1, 0, 1]\nclass = comedy", fillcolor="#d6f08e"] ;
338 -> 339 ;
340 [label="gini = 0.0\nsamples = 1\nvalue = [0, 0, 0, 1, 0, 0, 0, 0, 0, 0, 0, 0, 0, 0]\nclass = crime", fillcolor="#6de539"] ;
339 -> 340 ;
341 [label="release_year <= 2011.0\ngini = 0.449\nsamples = 7\nvalue = [0, 0, 5, 0, 0, 0, 0, 0, 0, 0, 0, 1, 0, 1]\nclass = comedy", fillcolor="#cfee7b"] ;
339 -> 341 ;
342 [label="gini = 0.0\nsamples = 2\nvalue = [0, 0, 2, 0, 0, 0, 0, 0, 0, 0, 0, 0, 0, 0]\nclass = comedy", fillcolor="#b7e539"] ;
341 -> 342 ;
343 [label="release_year <= 2014.0\ngini = 0.56\nsamples = 5\nvalue = [0, 0, 3, 0, 0, 0, 0, 0, 0, 0, 0, 1, 0, 1]\nclass = comedy", fillcolor="#dbf29c"] ;
341 -> 343 ;
344 [label="gini = 0.0\nsamples = 1\nvalue = [0, 0, 0, 0, 0, 0, 0, 0, 0, 0, 0, 0, 0, 1]\nclass = war", fillcolor="#e5393c"] ;
343 -> 344 ;
345 [label="release_year <= 2017.5\ngini = 0.375\nsamples = 4\nvalue = [0, 0, 3, 0, 0, 0, 0, 0, 0, 0, 0, 1, 0, 0]\nclass = comedy", fillcolor="#cfee7b"] ;
343 -> 345 ;
346 [label="gini = 0.0\nsamples = 1\nvalue = [0, 0, 1, 0, 0, 0, 0, 0, 0, 0, 0, 0, 0, 0]\nclass = comedy", fillcolor="#b7e539"] ;
345 -> 346 ;
347 [label="score <= 8.55\ngini = 0.444\nsamples = 3\nvalue = [0, 0, 2, 0, 0, 0, 0, 0, 0, 0, 0, 1, 0, 0]\nclass = comedy", fillcolor="#dbf29c"] ;
345 -> 347 ;
348 [label="gini = 0.5\nsamples = 2\nvalue = [0, 0, 1, 0, 0, 0, 0, 0, 0, 0, 0, 1, 0, 0]\nclass = comedy", fillcolor="#ffffff"] ;
347 -> 348 ;
349 [label="gini = 0.0\nsamples = 1\nvalue = [0, 0, 1, 0, 0, 0, 0, 0, 0, 0, 0, 0, 0, 0]\nclass = comedy", fillcolor="#b7e539"] ;
347 -> 349 ;
350 [label="score <= 8.9\ngini = 0.5\nsamples = 2\nvalue = [0, 0, 0, 0, 1, 0, 0, 0, 0, 0, 1, 0, 0, 0]\nclass = documentary", fillcolor="#ffffff"] ;
338 -> 350 ;
351 [label="gini = 0.0\nsamples = 1\nvalue = [0, 0, 0, 0, 0, 0, 0, 0, 0, 0, 1, 0, 0, 0]\nclass = scifi", fillcolor="#b139e5"] ;
350 -> 351 ;
352 [label="gini = 0.0\nsamples = 1\nvalue = [0, 0, 0, 0, 1, 0, 0, 0, 0, 0, 0, 0, 0, 0]\nclass = documentary", fillcolor="#39e54d"] ;
350 -> 352 ;
}